digraph Tree {
0 [label="X[5] <= 2.5000\ngini = 0.48\nsamples = 1400", shape="box"] ;
1 [label="X[5] <= 0.5000\ngini = 0.416267560126\nsamples = 1019", shape="box"] ;
0 -> 1 ;
2 [label="X[8] <= 11.5000\ngini = 0.374009904857\nsamples = 759", shape="box"] ;
1 -> 2 ;
3 [label="X[10] <= 30.5000\ngini = 0.411851108213\nsamples = 493", shape="box"] ;
2 -> 3 ;
4 [label="X[1] <= 21.7750\ngini = 0.400616319444\nsamples = 480", shape="box"] ;
3 -> 4 ;
5 [label="X[6] <= 16.5000\ngini = 0.390978400716\nsamples = 469", shape="box"] ;
4 -> 5 ;
6 [label="X[4] <= 3.9217\ngini = 0.280896647491\nsamples = 142", shape="box"] ;
5 -> 6 ;
7 [label="X[4] <= 3.9062\ngini = 0.421502313991\nsamples = 53", shape="box"] ;
6 -> 7 ;
8 [label="X[1] <= 6.2143\ngini = 0.369845897543\nsamples = 49", shape="box"] ;
7 -> 8 ;
9 [label="gini = 0.0000\nsamples = 2\nvalue = [ 2.  0.]", shape="box"] ;
8 -> 9 ;
10 [label="X[14] <= 0.0000\ngini = 0.334993209597\nsamples = 47", shape="box"] ;
8 -> 10 ;
11 [label="X[1] <= 9.6667\ngini = 0.5\nsamples = 8", shape="box"] ;
10 -> 11 ;
12 [label="gini = 0.0000\nsamples = 3\nvalue = [ 0.  3.]", shape="box"] ;
11 -> 12 ;
13 [label="X[12] <= 4.0000\ngini = 0.32\nsamples = 5", shape="box"] ;
11 -> 13 ;
14 [label="gini = 0.0000\nsamples = 1\nvalue = [ 0.  1.]", shape="box"] ;
13 -> 14 ;
15 [label="gini = 0.0000\nsamples = 4\nvalue = [ 4.  0.]", shape="box"] ;
13 -> 15 ;
16 [label="X[9] <= 11.5000\ngini = 0.260355029586\nsamples = 39", shape="box"] ;
10 -> 16 ;
17 [label="X[11] <= 7.5000\ngini = 0.228531855956\nsamples = 38", shape="box"] ;
16 -> 17 ;
18 [label="X[8] <= 4.5000\ngini = 0.160899653979\nsamples = 34", shape="box"] ;
17 -> 18 ;
19 [label="X[1] <= 8.5833\ngini = 0.355029585799\nsamples = 13", shape="box"] ;
18 -> 19 ;
20 [label="gini = 0.0000\nsamples = 8\nvalue = [ 0.  8.]", shape="box"] ;
19 -> 20 ;
21 [label="X[11] <= 3.5000\ngini = 0.48\nsamples = 5", shape="box"] ;
19 -> 21 ;
22 [label="X[0] <= 43.5000\ngini = 0.444444444444\nsamples = 3", shape="box"] ;
21 -> 22 ;
23 [label="gini = 0.0000\nsamples = 1\nvalue = [ 1.  0.]", shape="box"] ;
22 -> 23 ;
24 [label="gini = 0.0000\nsamples = 2\nvalue = [ 0.  2.]", shape="box"] ;
22 -> 24 ;
25 [label="gini = 0.0000\nsamples = 2\nvalue = [ 2.  0.]", shape="box"] ;
21 -> 25 ;
26 [label="gini = 0.0000\nsamples = 21\nvalue = [  0.  21.]", shape="box"] ;
18 -> 26 ;
27 [label="X[12] <= 5.5000\ngini = 0.5\nsamples = 4", shape="box"] ;
17 -> 27 ;
28 [label="gini = 0.0000\nsamples = 1\nvalue = [ 1.  0.]", shape="box"] ;
27 -> 28 ;
29 [label="X[11] <= 9.0000\ngini = 0.444444444444\nsamples = 3", shape="box"] ;
27 -> 29 ;
30 [label="gini = 0.0000\nsamples = 1\nvalue = [ 1.  0.]", shape="box"] ;
29 -> 30 ;
31 [label="gini = 0.0000\nsamples = 2\nvalue = [ 0.  2.]", shape="box"] ;
29 -> 31 ;
32 [label="gini = 0.0000\nsamples = 1\nvalue = [ 1.  0.]", shape="box"] ;
16 -> 32 ;
33 [label="gini = 0.0000\nsamples = 4\nvalue = [ 4.  0.]", shape="box"] ;
7 -> 33 ;
34 [label="X[6] <= 11.5000\ngini = 0.163615705088\nsamples = 89", shape="box"] ;
6 -> 34 ;
35 [label="X[1] <= 10.8500\ngini = 0.3046875\nsamples = 32", shape="box"] ;
34 -> 35 ;
36 [label="X[13] <= 3.5000\ngini = 0.244897959184\nsamples = 28", shape="box"] ;
35 -> 36 ;
37 [label="gini = 0.0000\nsamples = 1\nvalue = [ 1.  0.]", shape="box"] ;
36 -> 37 ;
38 [label="X[9] <= 5.5000\ngini = 0.197530864198\nsamples = 27", shape="box"] ;
36 -> 38 ;
39 [label="X[0] <= 40.0000\ngini = 0.375\nsamples = 12", shape="box"] ;
38 -> 39 ;
40 [label="X[14] <= 0.0000\ngini = 0.297520661157\nsamples = 11", shape="box"] ;
39 -> 40 ;
41 [label="gini = 0.0000\nsamples = 1\nvalue = [ 1.  0.]", shape="box"] ;
40 -> 41 ;
42 [label="X[4] <= 4.1918\ngini = 0.18\nsamples = 10", shape="box"] ;
40 -> 42 ;
43 [label="X[13] <= 5.5000\ngini = 0.5\nsamples = 2", shape="box"] ;
42 -> 43 ;
44 [label="gini = 0.0000\nsamples = 1\nvalue = [ 0.  1.]", shape="box"] ;
43 -> 44 ;
45 [label="gini = 0.0000\nsamples = 1\nvalue = [ 1.  0.]", shape="box"] ;
43 -> 45 ;
46 [label="gini = 0.0000\nsamples = 8\nvalue = [ 0.  8.]", shape="box"] ;
42 -> 46 ;
47 [label="gini = 0.0000\nsamples = 1\nvalue = [ 1.  0.]", shape="box"] ;
39 -> 47 ;
48 [label="gini = 0.0000\nsamples = 15\nvalue = [  0.  15.]", shape="box"] ;
38 -> 48 ;
49 [label="X[4] <= 4.0387\ngini = 0.5\nsamples = 4", shape="box"] ;
35 -> 49 ;
50 [label="gini = 0.0000\nsamples = 2\nvalue = [ 0.  2.]", shape="box"] ;
49 -> 50 ;
51 [label="gini = 0.0000\nsamples = 2\nvalue = [ 2.  0.]", shape="box"] ;
49 -> 51 ;
52 [label="X[1] <= 8.6458\ngini = 0.0677131425054\nsamples = 57", shape="box"] ;
34 -> 52 ;
53 [label="X[10] <= 14.0000\ngini = 0.244897959184\nsamples = 14", shape="box"] ;
52 -> 53 ;
54 [label="X[1] <= 8.6125\ngini = 0.14201183432\nsamples = 13", shape="box"] ;
53 -> 54 ;
55 [label="gini = 0.0000\nsamples = 12\nvalue = [  0.  12.]", shape="box"] ;
54 -> 55 ;
56 [label="gini = 0.0000\nsamples = 1\nvalue = [ 1.  0.]", shape="box"] ;
54 -> 56 ;
57 [label="gini = 0.0000\nsamples = 1\nvalue = [ 1.  0.]", shape="box"] ;
53 -> 57 ;
58 [label="gini = 0.0000\nsamples = 43\nvalue = [  0.  43.]", shape="box"] ;
52 -> 58 ;
59 [label="X[8] <= 3.5000\ngini = 0.426937500584\nsamples = 327", shape="box"] ;
5 -> 59 ;
60 [label="X[4] <= 4.4692\ngini = 0.487901234568\nsamples = 45", shape="box"] ;
59 -> 60 ;
61 [label="X[6] <= 24.5000\ngini = 0.438276113952\nsamples = 37", shape="box"] ;
60 -> 61 ;
62 [label="X[11] <= 6.5000\ngini = 0.4992\nsamples = 25", shape="box"] ;
61 -> 62 ;
63 [label="X[11] <= 3.5000\ngini = 0.455\nsamples = 20", shape="box"] ;
62 -> 63 ;
64 [label="X[0] <= 55.5000\ngini = 0.5\nsamples = 14", shape="box"] ;
63 -> 64 ;
65 [label="gini = 0.0000\nsamples = 4\nvalue = [ 4.  0.]", shape="box"] ;
64 -> 65 ;
66 [label="X[12] <= 8.5000\ngini = 0.42\nsamples = 10", shape="box"] ;
64 -> 66 ;
67 [label="gini = 0.0000\nsamples = 5\nvalue = [ 0.  5.]", shape="box"] ;
66 -> 67 ;
68 [label="X[11] <= 2.5000\ngini = 0.48\nsamples = 5", shape="box"] ;
66 -> 68 ;
69 [label="gini = 0.0000\nsamples = 2\nvalue = [ 0.  2.]", shape="box"] ;
68 -> 69 ;
70 [label="gini = 0.0000\nsamples = 3\nvalue = [ 3.  0.]", shape="box"] ;
68 -> 70 ;
71 [label="gini = 0.0000\nsamples = 6\nvalue = [ 6.  0.]", shape="box"] ;
63 -> 71 ;
72 [label="gini = 0.0000\nsamples = 5\nvalue = [ 0.  5.]", shape="box"] ;
62 -> 72 ;
73 [label="gini = 0.0000\nsamples = 12\nvalue = [ 12.   0.]", shape="box"] ;
61 -> 73 ;
74 [label="X[10] <= 16.5000\ngini = 0.21875\nsamples = 8", shape="box"] ;
60 -> 74 ;
75 [label="gini = 0.0000\nsamples = 7\nvalue = [ 0.  7.]", shape="box"] ;
74 -> 75 ;
76 [label="gini = 0.0000\nsamples = 1\nvalue = [ 1.  0.]", shape="box"] ;
74 -> 76 ;
77 [label="X[4] <= 3.5141\ngini = 0.390448166591\nsamples = 282", shape="box"] ;
59 -> 77 ;
78 [label="gini = 0.0000\nsamples = 4\nvalue = [ 4.  0.]", shape="box"] ;
77 -> 78 ;
79 [label="X[2] <= 108.0000\ngini = 0.380337456653\nsamples = 278", shape="box"] ;
77 -> 79 ;
80 [label="X[14] <= 0.0000\ngini = 0.375\nsamples = 276", shape="box"] ;
79 -> 80 ;
81 [label="X[12] <= 15.5000\ngini = 0.464444444444\nsamples = 60", shape="box"] ;
80 -> 81 ;
82 [label="X[4] <= 4.0743\ngini = 0.498046875\nsamples = 32", shape="box"] ;
81 -> 82 ;
83 [label="X[4] <= 3.9791\ngini = 0.476370510397\nsamples = 23", shape="box"] ;
82 -> 83 ;
84 [label="X[7] <= 2.5000\ngini = 0.459183673469\nsamples = 14", shape="box"] ;
83 -> 84 ;
85 [label="gini = 0.0000\nsamples = 2\nvalue = [ 0.  2.]", shape="box"] ;
84 -> 85 ;
86 [label="X[4] <= 3.7812\ngini = 0.375\nsamples = 12", shape="box"] ;
84 -> 86 ;
87 [label="X[4] <= 3.6752\ngini = 0.48\nsamples = 5", shape="box"] ;
86 -> 87 ;
88 [label="gini = 0.0000\nsamples = 2\nvalue = [ 2.  0.]", shape="box"] ;
87 -> 88 ;
89 [label="gini = 0.0000\nsamples = 3\nvalue = [ 0.  3.]", shape="box"] ;
87 -> 89 ;
90 [label="gini = 0.0000\nsamples = 7\nvalue = [ 7.  0.]", shape="box"] ;
86 -> 90 ;
91 [label="gini = 0.0000\nsamples = 9\nvalue = [ 0.  9.]", shape="box"] ;
83 -> 91 ;
92 [label="X[9] <= 7.5000\ngini = 0.197530864198\nsamples = 9", shape="box"] ;
82 -> 92 ;
93 [label="X[6] <= 21.0000\ngini = 0.5\nsamples = 2", shape="box"] ;
92 -> 93 ;
94 [label="gini = 0.0000\nsamples = 1\nvalue = [ 0.  1.]", shape="box"] ;
93 -> 94 ;
95 [label="gini = 0.0000\nsamples = 1\nvalue = [ 1.  0.]", shape="box"] ;
93 -> 95 ;
96 [label="gini = 0.0000\nsamples = 7\nvalue = [ 7.  0.]", shape="box"] ;
92 -> 96 ;
97 [label="X[2] <= 62.5000\ngini = 0.293367346939\nsamples = 28", shape="box"] ;
81 -> 97 ;
98 [label="X[4] <= 3.6596\ngini = 0.444444444444\nsamples = 3", shape="box"] ;
97 -> 98 ;
99 [label="gini = 0.0000\nsamples = 1\nvalue = [ 0.  1.]", shape="box"] ;
98 -> 99 ;
100 [label="gini = 0.0000\nsamples = 2\nvalue = [ 2.  0.]", shape="box"] ;
98 -> 100 ;
101 [label="X[7] <= 12.5000\ngini = 0.2112\nsamples = 25", shape="box"] ;
97 -> 101 ;
102 [label="X[6] <= 30.5000\ngini = 0.158790170132\nsamples = 23", shape="box"] ;
101 -> 102 ;
103 [label="gini = 0.0000\nsamples = 13\nvalue = [  0.  13.]", shape="box"] ;
102 -> 103 ;
104 [label="X[6] <= 31.5000\ngini = 0.32\nsamples = 10", shape="box"] ;
102 -> 104 ;
105 [label="gini = 0.0000\nsamples = 1\nvalue = [ 1.  0.]", shape="box"] ;
104 -> 105 ;
106 [label="X[7] <= 6.5000\ngini = 0.197530864198\nsamples = 9", shape="box"] ;
104 -> 106 ;
107 [label="gini = 0.0000\nsamples = 1\nvalue = [ 1.  0.]", shape="box"] ;
106 -> 107 ;
108 [label="gini = 0.0000\nsamples = 8\nvalue = [ 0.  8.]", shape="box"] ;
106 -> 108 ;
109 [label="X[10] <= 25.5000\ngini = 0.5\nsamples = 2", shape="box"] ;
101 -> 109 ;
110 [label="gini = 0.0000\nsamples = 1\nvalue = [ 0.  1.]", shape="box"] ;
109 -> 110 ;
111 [label="gini = 0.0000\nsamples = 1\nvalue = [ 1.  0.]", shape="box"] ;
109 -> 111 ;
112 [label="X[7] <= 7.5000\ngini = 0.340492112483\nsamples = 216", shape="box"] ;
80 -> 112 ;
113 [label="X[6] <= 27.5000\ngini = 0.224765868887\nsamples = 93", shape="box"] ;
112 -> 113 ;
114 [label="X[10] <= 6.5000\ngini = 0.11550295858\nsamples = 65", shape="box"] ;
113 -> 114 ;
115 [label="gini = 0.0000\nsamples = 1\nvalue = [ 1.  0.]", shape="box"] ;
114 -> 115 ;
116 [label="X[1] <= 12.5357\ngini = 0.08935546875\nsamples = 64", shape="box"] ;
114 -> 116 ;
117 [label="gini = 0.0000\nsamples = 46\nvalue = [  0.  46.]", shape="box"] ;
116 -> 117 ;
118 [label="X[0] <= 69.5000\ngini = 0.277777777778\nsamples = 18", shape="box"] ;
116 -> 118 ;
119 [label="X[13] <= 10.5000\ngini = 0.444444444444\nsamples = 3", shape="box"] ;
118 -> 119 ;
120 [label="gini = 0.0000\nsamples = 1\nvalue = [ 0.  1.]", shape="box"] ;
119 -> 120 ;
121 [label="gini = 0.0000\nsamples = 2\nvalue = [ 2.  0.]", shape="box"] ;
119 -> 121 ;
122 [label="X[9] <= 11.5000\ngini = 0.124444444444\nsamples = 15", shape="box"] ;
118 -> 122 ;
123 [label="gini = 0.0000\nsamples = 14\nvalue = [  0.  14.]", shape="box"] ;
122 -> 123 ;
124 [label="gini = 0.0000\nsamples = 1\nvalue = [ 1.  0.]", shape="box"] ;
122 -> 124 ;
125 [label="X[0] <= 82.0000\ngini = 0.408163265306\nsamples = 28", shape="box"] ;
113 -> 125 ;
126 [label="gini = 0.0000\nsamples = 3\nvalue = [ 3.  0.]", shape="box"] ;
125 -> 126 ;
127 [label="X[1] <= 9.2028\ngini = 0.32\nsamples = 25", shape="box"] ;
125 -> 127 ;
128 [label="X[13] <= 12.5000\ngini = 0.444444444444\nsamples = 3", shape="box"] ;
127 -> 128 ;
129 [label="gini = 0.0000\nsamples = 1\nvalue = [ 0.  1.]", shape="box"] ;
128 -> 129 ;
130 [label="gini = 0.0000\nsamples = 2\nvalue = [ 2.  0.]", shape="box"] ;
128 -> 130 ;
131 [label="X[10] <= 11.5000\ngini = 0.235537190083\nsamples = 22", shape="box"] ;
127 -> 131 ;
132 [label="gini = 0.0000\nsamples = 1\nvalue = [ 1.  0.]", shape="box"] ;
131 -> 132 ;
133 [label="X[1] <= 12.3819\ngini = 0.172335600907\nsamples = 21", shape="box"] ;
131 -> 133 ;
134 [label="X[11] <= 5.0000\ngini = 0.375\nsamples = 8", shape="box"] ;
133 -> 134 ;
135 [label="gini = 0.0000\nsamples = 2\nvalue = [ 2.  0.]", shape="box"] ;
134 -> 135 ;
136 [label="gini = 0.0000\nsamples = 6\nvalue = [ 0.  6.]", shape="box"] ;
134 -> 136 ;
137 [label="gini = 0.0000\nsamples = 13\nvalue = [  0.  13.]", shape="box"] ;
133 -> 137 ;
138 [label="X[8] <= 5.5000\ngini = 0.40716504726\nsamples = 123", shape="box"] ;
112 -> 138 ;
139 [label="X[0] <= 105.0000\ngini = 0.496527777778\nsamples = 24", shape="box"] ;
138 -> 139 ;
140 [label="X[6] <= 18.5000\ngini = 0.32\nsamples = 15", shape="box"] ;
139 -> 140 ;
141 [label="X[4] <= 3.8984\ngini = 0.48\nsamples = 5", shape="box"] ;
140 -> 141 ;
142 [label="gini = 0.0000\nsamples = 2\nvalue = [ 2.  0.]", shape="box"] ;
141 -> 142 ;
143 [label="gini = 0.0000\nsamples = 3\nvalue = [ 0.  3.]", shape="box"] ;
141 -> 143 ;
144 [label="gini = 0.0000\nsamples = 10\nvalue = [ 10.   0.]", shape="box"] ;
140 -> 144 ;
145 [label="X[6] <= 35.5000\ngini = 0.197530864198\nsamples = 9", shape="box"] ;
139 -> 145 ;
146 [label="gini = 0.0000\nsamples = 8\nvalue = [ 0.  8.]", shape="box"] ;
145 -> 146 ;
147 [label="gini = 0.0000\nsamples = 1\nvalue = [ 1.  0.]", shape="box"] ;
145 -> 147 ;
148 [label="X[9] <= 21.5000\ngini = 0.345679012346\nsamples = 99", shape="box"] ;
138 -> 148 ;
149 [label="X[1] <= 16.3833\ngini = 0.312174817898\nsamples = 93", shape="box"] ;
148 -> 149 ;
150 [label="X[1] <= 14.1167\ngini = 0.361495844875\nsamples = 76", shape="box"] ;
149 -> 150 ;
151 [label="X[13] <= 25.5000\ngini = 0.291883454735\nsamples = 62", shape="box"] ;
150 -> 151 ;
152 [label="X[13] <= 8.0000\ngini = 0.255\nsamples = 60", shape="box"] ;
151 -> 152 ;
153 [label="gini = 0.0000\nsamples = 1\nvalue = [ 1.  0.]", shape="box"] ;
152 -> 153 ;
154 [label="X[7] <= 17.5000\ngini = 0.234415397874\nsamples = 59", shape="box"] ;
152 -> 154 ;
155 [label="X[4] <= 3.7289\ngini = 0.212247324614\nsamples = 58", shape="box"] ;
154 -> 155 ;
156 [label="X[10] <= 19.0000\ngini = 0.5\nsamples = 4", shape="box"] ;
155 -> 156 ;
157 [label="gini = 0.0000\nsamples = 2\nvalue = [ 2.  0.]", shape="box"] ;
156 -> 157 ;
158 [label="gini = 0.0000\nsamples = 2\nvalue = [ 0.  2.]", shape="box"] ;
156 -> 158 ;
159 [label="X[11] <= 8.5000\ngini = 0.168038408779\nsamples = 54", shape="box"] ;
155 -> 159 ;
160 [label="X[10] <= 11.5000\ngini = 0.0525931336742\nsamples = 37", shape="box"] ;
159 -> 160 ;
161 [label="X[1] <= 9.8071\ngini = 0.375\nsamples = 4", shape="box"] ;
160 -> 161 ;
162 [label="gini = 0.0000\nsamples = 1\nvalue = [ 1.  0.]", shape="box"] ;
161 -> 162 ;
163 [label="gini = 0.0000\nsamples = 3\nvalue = [ 0.  3.]", shape="box"] ;
161 -> 163 ;
164 [label="gini = 0.0000\nsamples = 33\nvalue = [  0.  33.]", shape="box"] ;
160 -> 164 ;
165 [label="X[4] <= 3.9740\ngini = 0.359861591696\nsamples = 17", shape="box"] ;
159 -> 165 ;
166 [label="gini = 0.0000\nsamples = 9\nvalue = [ 0.  9.]", shape="box"] ;
165 -> 166 ;
167 [label="X[0] <= 113.0000\ngini = 0.5\nsamples = 8", shape="box"] ;
165 -> 167 ;
168 [label="gini = 0.0000\nsamples = 3\nvalue = [ 3.  0.]", shape="box"] ;
167 -> 168 ;
169 [label="X[1] <= 10.2917\ngini = 0.32\nsamples = 5", shape="box"] ;
167 -> 169 ;
170 [label="gini = 0.0000\nsamples = 1\nvalue = [ 1.  0.]", shape="box"] ;
169 -> 170 ;
171 [label="gini = 0.0000\nsamples = 4\nvalue = [ 0.  4.]", shape="box"] ;
169 -> 171 ;
172 [label="gini = 0.0000\nsamples = 1\nvalue = [ 1.  0.]", shape="box"] ;
154 -> 172 ;
173 [label="gini = 0.0000\nsamples = 2\nvalue = [ 2.  0.]", shape="box"] ;
151 -> 173 ;
174 [label="X[11] <= 6.5000\ngini = 0.5\nsamples = 14", shape="box"] ;
150 -> 174 ;
175 [label="gini = 0.0000\nsamples = 4\nvalue = [ 4.  0.]", shape="box"] ;
174 -> 175 ;
176 [label="X[2] <= 80.0000\ngini = 0.42\nsamples = 10", shape="box"] ;
174 -> 176 ;
177 [label="gini = 0.0000\nsamples = 5\nvalue = [ 0.  5.]", shape="box"] ;
176 -> 177 ;
178 [label="X[10] <= 27.5000\ngini = 0.48\nsamples = 5", shape="box"] ;
176 -> 178 ;
179 [label="gini = 0.0000\nsamples = 3\nvalue = [ 3.  0.]", shape="box"] ;
178 -> 179 ;
180 [label="gini = 0.0000\nsamples = 2\nvalue = [ 0.  2.]", shape="box"] ;
178 -> 180 ;
181 [label="gini = 0.0000\nsamples = 17\nvalue = [  0.  17.]", shape="box"] ;
149 -> 181 ;
182 [label="X[12] <= 22.5000\ngini = 0.444444444444\nsamples = 6", shape="box"] ;
148 -> 182 ;
183 [label="gini = 0.0000\nsamples = 4\nvalue = [ 4.  0.]", shape="box"] ;
182 -> 183 ;
184 [label="gini = 0.0000\nsamples = 2\nvalue = [ 0.  2.]", shape="box"] ;
182 -> 184 ;
185 [label="gini = 0.0000\nsamples = 2\nvalue = [ 2.  0.]", shape="box"] ;
79 -> 185 ;
186 [label="X[0] <= 175.5000\ngini = 0.396694214876\nsamples = 11", shape="box"] ;
4 -> 186 ;
187 [label="X[1] <= 25.3750\ngini = 0.197530864198\nsamples = 9", shape="box"] ;
186 -> 187 ;
188 [label="gini = 0.0000\nsamples = 6\nvalue = [ 6.  0.]", shape="box"] ;
187 -> 188 ;
189 [label="X[13] <= 17.0000\ngini = 0.444444444444\nsamples = 3", shape="box"] ;
187 -> 189 ;
190 [label="gini = 0.0000\nsamples = 2\nvalue = [ 2.  0.]", shape="box"] ;
189 -> 190 ;
191 [label="gini = 0.0000\nsamples = 1\nvalue = [ 0.  1.]", shape="box"] ;
189 -> 191 ;
192 [label="gini = 0.0000\nsamples = 2\nvalue = [ 0.  2.]", shape="box"] ;
186 -> 192 ;
193 [label="X[4] <= 4.0954\ngini = 0.355029585799\nsamples = 13", shape="box"] ;
3 -> 193 ;
194 [label="X[8] <= 10.5000\ngini = 0.5\nsamples = 6", shape="box"] ;
193 -> 194 ;
195 [label="X[0] <= 155.0000\ngini = 0.375\nsamples = 4", shape="box"] ;
194 -> 195 ;
196 [label="gini = 0.0000\nsamples = 1\nvalue = [ 1.  0.]", shape="box"] ;
195 -> 196 ;
197 [label="gini = 0.0000\nsamples = 3\nvalue = [ 0.  3.]", shape="box"] ;
195 -> 197 ;
198 [label="gini = 0.0000\nsamples = 2\nvalue = [ 2.  0.]", shape="box"] ;
194 -> 198 ;
199 [label="gini = 0.0000\nsamples = 7\nvalue = [ 7.  0.]", shape="box"] ;
193 -> 199 ;
200 [label="X[1] <= 8.6442\ngini = 0.286053479564\nsamples = 266", shape="box"] ;
2 -> 200 ;
201 [label="X[7] <= 9.5000\ngini = 0.408163265306\nsamples = 7", shape="box"] ;
200 -> 201 ;
202 [label="X[9] <= 14.5000\ngini = 0.444444444444\nsamples = 3", shape="box"] ;
201 -> 202 ;
203 [label="gini = 0.0000\nsamples = 1\nvalue = [ 1.  0.]", shape="box"] ;
202 -> 203 ;
204 [label="gini = 0.0000\nsamples = 2\nvalue = [ 0.  2.]", shape="box"] ;
202 -> 204 ;
205 [label="gini = 0.0000\nsamples = 4\nvalue = [ 4.  0.]", shape="box"] ;
201 -> 205 ;
206 [label="X[3] <= 0.5000\ngini = 0.266483803163\nsamples = 259", shape="box"] ;
200 -> 206 ;
207 [label="X[2] <= 85.5000\ngini = 0.257445230056\nsamples = 257", shape="box"] ;
206 -> 207 ;
208 [label="X[9] <= 19.0000\ngini = 0.118570741868\nsamples = 79", shape="box"] ;
207 -> 208 ;
209 [label="X[12] <= 10.5000\ngini = 0.0973044049967\nsamples = 78", shape="box"] ;
208 -> 209 ;
210 [label="X[1] <= 16.3333\ngini = 0.408163265306\nsamples = 7", shape="box"] ;
209 -> 210 ;
211 [label="gini = 0.0000\nsamples = 5\nvalue = [ 0.  5.]", shape="box"] ;
210 -> 211 ;
212 [label="gini = 0.0000\nsamples = 2\nvalue = [ 2.  0.]", shape="box"] ;
210 -> 212 ;
213 [label="X[6] <= 16.5000\ngini = 0.05475104146\nsamples = 71", shape="box"] ;
209 -> 213 ;
214 [label="X[14] <= 0.0000\ngini = 0.444444444444\nsamples = 3", shape="box"] ;
213 -> 214 ;
215 [label="gini = 0.0000\nsamples = 1\nvalue = [ 1.  0.]", shape="box"] ;
214 -> 215 ;
216 [label="gini = 0.0000\nsamples = 2\nvalue = [ 0.  2.]", shape="box"] ;
214 -> 216 ;
217 [label="X[11] <= 13.5000\ngini = 0.0289792387543\nsamples = 68", shape="box"] ;
213 -> 217 ;
218 [label="gini = 0.0000\nsamples = 64\nvalue = [  0.  64.]", shape="box"] ;
217 -> 218 ;
219 [label="X[2] <= 83.0000\ngini = 0.375\nsamples = 4", shape="box"] ;
217 -> 219 ;
220 [label="gini = 0.0000\nsamples = 3\nvalue = [ 0.  3.]", shape="box"] ;
219 -> 220 ;
221 [label="gini = 0.0000\nsamples = 1\nvalue = [ 1.  0.]", shape="box"] ;
219 -> 221 ;
222 [label="gini = 0.0000\nsamples = 1\nvalue = [ 1.  0.]", shape="box"] ;
208 -> 222 ;
223 [label="X[12] <= 15.5000\ngini = 0.309051887388\nsamples = 178", shape="box"] ;
207 -> 223 ;
224 [label="X[9] <= 16.5000\ngini = 0.408163265306\nsamples = 7", shape="box"] ;
223 -> 224 ;
225 [label="gini = 0.0000\nsamples = 4\nvalue = [ 4.  0.]", shape="box"] ;
224 -> 225 ;
226 [label="X[7] <= 14.0000\ngini = 0.444444444444\nsamples = 3", shape="box"] ;
224 -> 226 ;
227 [label="gini = 0.0000\nsamples = 2\nvalue = [ 0.  2.]", shape="box"] ;
226 -> 227 ;
228 [label="gini = 0.0000\nsamples = 1\nvalue = [ 1.  0.]", shape="box"] ;
226 -> 228 ;
229 [label="X[10] <= 21.5000\ngini = 0.281659313977\nsamples = 171", shape="box"] ;
223 -> 229 ;
230 [label="gini = 0.0000\nsamples = 2\nvalue = [ 2.  0.]", shape="box"] ;
229 -> 230 ;
231 [label="X[4] <= 3.9205\ngini = 0.268477994468\nsamples = 169", shape="box"] ;
229 -> 231 ;
232 [label="X[12] <= 25.5000\ngini = 0.363378099174\nsamples = 88", shape="box"] ;
231 -> 232 ;
233 [label="X[4] <= 3.9074\ngini = 0.193761814745\nsamples = 46", shape="box"] ;
232 -> 233 ;
234 [label="X[9] <= 27.5000\ngini = 0.127066115702\nsamples = 44", shape="box"] ;
233 -> 234 ;
235 [label="X[0] <= 132.5000\ngini = 0.0886965927528\nsamples = 43", shape="box"] ;
234 -> 235 ;
236 [label="gini = 0.0000\nsamples = 1\nvalue = [ 1.  0.]", shape="box"] ;
235 -> 236 ;
237 [label="X[2] <= 87.5000\ngini = 0.046485260771\nsamples = 42", shape="box"] ;
235 -> 237 ;
238 [label="X[13] <= 32.5000\ngini = 0.444444444444\nsamples = 3", shape="box"] ;
237 -> 238 ;
239 [label="gini = 0.0000\nsamples = 2\nvalue = [ 0.  2.]", shape="box"] ;
238 -> 239 ;
240 [label="gini = 0.0000\nsamples = 1\nvalue = [ 1.  0.]", shape="box"] ;
238 -> 240 ;
241 [label="gini = 0.0000\nsamples = 39\nvalue = [  0.  39.]", shape="box"] ;
237 -> 241 ;
242 [label="gini = 0.0000\nsamples = 1\nvalue = [ 1.  0.]", shape="box"] ;
234 -> 242 ;
243 [label="gini = 0.0000\nsamples = 2\nvalue = [ 2.  0.]", shape="box"] ;
233 -> 243 ;
244 [label="X[2] <= 110.5000\ngini = 0.471655328798\nsamples = 42", shape="box"] ;
232 -> 244 ;
245 [label="X[4] <= 3.6794\ngini = 0.32\nsamples = 10", shape="box"] ;
244 -> 245 ;
246 [label="gini = 0.0000\nsamples = 1\nvalue = [ 0.  1.]", shape="box"] ;
245 -> 246 ;
247 [label="X[10] <= 33.0000\ngini = 0.197530864198\nsamples = 9", shape="box"] ;
245 -> 247 ;
248 [label="gini = 0.0000\nsamples = 6\nvalue = [ 6.  0.]", shape="box"] ;
247 -> 248 ;
249 [label="X[7] <= 12.5000\ngini = 0.444444444444\nsamples = 3", shape="box"] ;
247 -> 249 ;
250 [label="gini = 0.0000\nsamples = 1\nvalue = [ 0.  1.]", shape="box"] ;
249 -> 250 ;
251 [label="gini = 0.0000\nsamples = 2\nvalue = [ 2.  0.]", shape="box"] ;
249 -> 251 ;
252 [label="X[4] <= 3.7257\ngini = 0.375\nsamples = 32", shape="box"] ;
244 -> 252 ;
253 [label="X[12] <= 38.0000\ngini = 0.277777777778\nsamples = 6", shape="box"] ;
252 -> 253 ;
254 [label="gini = 0.0000\nsamples = 5\nvalue = [ 5.  0.]", shape="box"] ;
253 -> 254 ;
255 [label="gini = 0.0000\nsamples = 1\nvalue = [ 0.  1.]", shape="box"] ;
253 -> 255 ;
256 [label="X[1] <= 11.5652\ngini = 0.204142011834\nsamples = 26", shape="box"] ;
252 -> 256 ;
257 [label="gini = 0.0000\nsamples = 2\nvalue = [ 2.  0.]", shape="box"] ;
256 -> 257 ;
258 [label="X[8] <= 37.5000\ngini = 0.0798611111111\nsamples = 24", shape="box"] ;
256 -> 258 ;
259 [label="gini = 0.0000\nsamples = 20\nvalue = [  0.  20.]", shape="box"] ;
258 -> 259 ;
260 [label="X[2] <= 171.5000\ngini = 0.375\nsamples = 4", shape="box"] ;
258 -> 260 ;
261 [label="gini = 0.0000\nsamples = 1\nvalue = [ 1.  0.]", shape="box"] ;
260 -> 261 ;
262 [label="gini = 0.0000\nsamples = 3\nvalue = [ 0.  3.]", shape="box"] ;
260 -> 262 ;
263 [label="X[8] <= 15.5000\ngini = 0.137174211248\nsamples = 81", shape="box"] ;
231 -> 263 ;
264 [label="X[10] <= 30.0000\ngini = 0.32\nsamples = 25", shape="box"] ;
263 -> 264 ;
265 [label="X[9] <= 14.5000\ngini = 0.110726643599\nsamples = 17", shape="box"] ;
264 -> 265 ;
266 [label="X[9] <= 13.5000\ngini = 0.5\nsamples = 2", shape="box"] ;
265 -> 266 ;
267 [label="gini = 0.0000\nsamples = 1\nvalue = [ 0.  1.]", shape="box"] ;
266 -> 267 ;
268 [label="gini = 0.0000\nsamples = 1\nvalue = [ 1.  0.]", shape="box"] ;
266 -> 268 ;
269 [label="gini = 0.0000\nsamples = 15\nvalue = [  0.  15.]", shape="box"] ;
265 -> 269 ;
270 [label="X[6] <= 46.5000\ngini = 0.5\nsamples = 8", shape="box"] ;
264 -> 270 ;
271 [label="X[13] <= 28.5000\ngini = 0.32\nsamples = 5", shape="box"] ;
270 -> 271 ;
272 [label="gini = 0.0000\nsamples = 1\nvalue = [ 0.  1.]", shape="box"] ;
271 -> 272 ;
273 [label="gini = 0.0000\nsamples = 4\nvalue = [ 4.  0.]", shape="box"] ;
271 -> 273 ;
274 [label="gini = 0.0000\nsamples = 3\nvalue = [ 0.  3.]", shape="box"] ;
270 -> 274 ;
275 [label="X[10] <= 52.0000\ngini = 0.0350765306122\nsamples = 56", shape="box"] ;
263 -> 275 ;
276 [label="gini = 0.0000\nsamples = 49\nvalue = [  0.  49.]", shape="box"] ;
275 -> 276 ;
277 [label="X[8] <= 24.0000\ngini = 0.244897959184\nsamples = 7", shape="box"] ;
275 -> 277 ;
278 [label="gini = 0.0000\nsamples = 1\nvalue = [ 1.  0.]", shape="box"] ;
277 -> 278 ;
279 [label="gini = 0.0000\nsamples = 6\nvalue = [ 0.  6.]", shape="box"] ;
277 -> 279 ;
280 [label="gini = 0.0000\nsamples = 2\nvalue = [ 2.  0.]", shape="box"] ;
206 -> 280 ;
281 [label="X[1] <= 10.5278\ngini = 0.490414201183\nsamples = 260", shape="box"] ;
1 -> 281 ;
282 [label="X[7] <= 5.5000\ngini = 0.436656133295\nsamples = 59", shape="box"] ;
281 -> 282 ;
283 [label="X[14] <= 0.0000\ngini = 0.493827160494\nsamples = 18", shape="box"] ;
282 -> 283 ;
284 [label="gini = 0.0000\nsamples = 4\nvalue = [ 4.  0.]", shape="box"] ;
283 -> 284 ;
285 [label="X[9] <= 6.5000\ngini = 0.408163265306\nsamples = 14", shape="box"] ;
283 -> 285 ;
286 [label="gini = 0.0000\nsamples = 3\nvalue = [ 3.  0.]", shape="box"] ;
285 -> 286 ;
287 [label="X[1] <= 10.4375\ngini = 0.165289256198\nsamples = 11", shape="box"] ;
285 -> 287 ;
288 [label="gini = 0.0000\nsamples = 10\nvalue = [  0.  10.]", shape="box"] ;
287 -> 288 ;
289 [label="gini = 0.0000\nsamples = 1\nvalue = [ 1.  0.]", shape="box"] ;
287 -> 289 ;
290 [label="X[12] <= 9.5000\ngini = 0.342653182629\nsamples = 41", shape="box"] ;
282 -> 290 ;
291 [label="gini = 0.0000\nsamples = 10\nvalue = [ 10.   0.]", shape="box"] ;
290 -> 291 ;
292 [label="X[7] <= 9.5000\ngini = 0.412070759625\nsamples = 31", shape="box"] ;
290 -> 292 ;
293 [label="X[8] <= 8.0000\ngini = 0.444444444444\nsamples = 9", shape="box"] ;
292 -> 293 ;
294 [label="X[1] <= 10.1381\ngini = 0.48\nsamples = 5", shape="box"] ;
293 -> 294 ;
295 [label="gini = 0.0000\nsamples = 3\nvalue = [ 3.  0.]", shape="box"] ;
294 -> 295 ;
296 [label="gini = 0.0000\nsamples = 2\nvalue = [ 0.  2.]", shape="box"] ;
294 -> 296 ;
297 [label="gini = 0.0000\nsamples = 4\nvalue = [ 0.  4.]", shape="box"] ;
293 -> 297 ;
298 [label="X[4] <= 4.0714\ngini = 0.235537190083\nsamples = 22", shape="box"] ;
292 -> 298 ;
299 [label="X[9] <= 15.0000\ngini = 0.1171875\nsamples = 16", shape="box"] ;
298 -> 299 ;
300 [label="X[2] <= 86.5000\ngini = 0.5\nsamples = 2", shape="box"] ;
299 -> 300 ;
301 [label="gini = 0.0000\nsamples = 1\nvalue = [ 1.  0.]", shape="box"] ;
300 -> 301 ;
302 [label="gini = 0.0000\nsamples = 1\nvalue = [ 0.  1.]", shape="box"] ;
300 -> 302 ;
303 [label="gini = 0.0000\nsamples = 14\nvalue = [ 14.   0.]", shape="box"] ;
299 -> 303 ;
304 [label="X[0] <= 157.5000\ngini = 0.444444444444\nsamples = 6", shape="box"] ;
298 -> 304 ;
305 [label="gini = 0.0000\nsamples = 3\nvalue = [ 3.  0.]", shape="box"] ;
304 -> 305 ;
306 [label="X[2] <= 136.5000\ngini = 0.444444444444\nsamples = 3", shape="box"] ;
304 -> 306 ;
307 [label="gini = 0.0000\nsamples = 2\nvalue = [ 0.  2.]", shape="box"] ;
306 -> 307 ;
308 [label="gini = 0.0000\nsamples = 1\nvalue = [ 1.  0.]", shape="box"] ;
306 -> 308 ;
309 [label="X[8] <= 12.5000\ngini = 0.459790599243\nsamples = 201", shape="box"] ;
281 -> 309 ;
310 [label="X[9] <= 19.5000\ngini = 0.495\nsamples = 100", shape="box"] ;
309 -> 310 ;
311 [label="X[10] <= 8.0000\ngini = 0.470868014269\nsamples = 87", shape="box"] ;
310 -> 311 ;
312 [label="X[12] <= 5.5000\ngini = 0.277777777778\nsamples = 6", shape="box"] ;
311 -> 312 ;
313 [label="gini = 0.0000\nsamples = 1\nvalue = [ 0.  1.]", shape="box"] ;
312 -> 313 ;
314 [label="gini = 0.0000\nsamples = 5\nvalue = [ 5.  0.]", shape="box"] ;
312 -> 314 ;
315 [label="X[2] <= 92.0000\ngini = 0.452370065539\nsamples = 81", shape="box"] ;
311 -> 315 ;
316 [label="X[13] <= 16.5000\ngini = 0.410009182736\nsamples = 66", shape="box"] ;
315 -> 316 ;
317 [label="X[4] <= 4.0099\ngini = 0.493827160494\nsamples = 27", shape="box"] ;
316 -> 317 ;
318 [label="X[7] <= 4.5000\ngini = 0.495\nsamples = 20", shape="box"] ;
317 -> 318 ;
319 [label="X[12] <= 13.5000\ngini = 0.375\nsamples = 8", shape="box"] ;
318 -> 319 ;
320 [label="X[1] <= 14.3000\ngini = 0.244897959184\nsamples = 7", shape="box"] ;
319 -> 320 ;
321 [label="gini = 0.0000\nsamples = 5\nvalue = [ 0.  5.]", shape="box"] ;
320 -> 321 ;
322 [label="X[12] <= 11.0000\ngini = 0.5\nsamples = 2", shape="box"] ;
320 -> 322 ;
323 [label="gini = 0.0000\nsamples = 1\nvalue = [ 1.  0.]", shape="box"] ;
322 -> 323 ;
324 [label="gini = 0.0000\nsamples = 1\nvalue = [ 0.  1.]", shape="box"] ;
322 -> 324 ;
325 [label="gini = 0.0000\nsamples = 1\nvalue = [ 1.  0.]", shape="box"] ;
319 -> 325 ;
326 [label="X[0] <= 87.5000\ngini = 0.375\nsamples = 12", shape="box"] ;
318 -> 326 ;
327 [label="gini = 0.0000\nsamples = 6\nvalue = [ 6.  0.]", shape="box"] ;
326 -> 327 ;
328 [label="X[11] <= 10.5000\ngini = 0.5\nsamples = 6", shape="box"] ;
326 -> 328 ;
329 [label="X[9] <= 14.0000\ngini = 0.375\nsamples = 4", shape="box"] ;
328 -> 329 ;
330 [label="gini = 0.0000\nsamples = 3\nvalue = [ 0.  3.]", shape="box"] ;
329 -> 330 ;
331 [label="gini = 0.0000\nsamples = 1\nvalue = [ 1.  0.]", shape="box"] ;
329 -> 331 ;
332 [label="gini = 0.0000\nsamples = 2\nvalue = [ 2.  0.]", shape="box"] ;
328 -> 332 ;
333 [label="X[1] <= 30.8750\ngini = 0.244897959184\nsamples = 7", shape="box"] ;
317 -> 333 ;
334 [label="gini = 0.0000\nsamples = 6\nvalue = [ 0.  6.]", shape="box"] ;
333 -> 334 ;
335 [label="gini = 0.0000\nsamples = 1\nvalue = [ 1.  0.]", shape="box"] ;
333 -> 335 ;
336 [label="X[9] <= 11.5000\ngini = 0.294543063774\nsamples = 39", shape="box"] ;
316 -> 336 ;
337 [label="gini = 0.0000\nsamples = 14\nvalue = [  0.  14.]", shape="box"] ;
336 -> 337 ;
338 [label="X[9] <= 12.5000\ngini = 0.4032\nsamples = 25", shape="box"] ;
336 -> 338 ;
339 [label="gini = 0.0000\nsamples = 3\nvalue = [ 3.  0.]", shape="box"] ;
338 -> 339 ;
340 [label="X[8] <= 3.5000\ngini = 0.297520661157\nsamples = 22", shape="box"] ;
338 -> 340 ;
341 [label="gini = 0.0000\nsamples = 1\nvalue = [ 1.  0.]", shape="box"] ;
340 -> 341 ;
342 [label="X[4] <= 3.5225\ngini = 0.244897959184\nsamples = 21", shape="box"] ;
340 -> 342 ;
343 [label="gini = 0.0000\nsamples = 1\nvalue = [ 1.  0.]", shape="box"] ;
342 -> 343 ;
344 [label="X[10] <= 12.0000\ngini = 0.18\nsamples = 20", shape="box"] ;
342 -> 344 ;
345 [label="gini = 0.0000\nsamples = 1\nvalue = [ 1.  0.]", shape="box"] ;
344 -> 345 ;
346 [label="X[1] <= 12.3333\ngini = 0.0997229916898\nsamples = 19", shape="box"] ;
344 -> 346 ;
347 [label="X[11] <= 7.5000\ngini = 0.444444444444\nsamples = 3", shape="box"] ;
346 -> 347 ;
348 [label="gini = 0.0000\nsamples = 1\nvalue = [ 1.  0.]", shape="box"] ;
347 -> 348 ;
349 [label="gini = 0.0000\nsamples = 2\nvalue = [ 0.  2.]", shape="box"] ;
347 -> 349 ;
350 [label="gini = 0.0000\nsamples = 16\nvalue = [  0.  16.]", shape="box"] ;
346 -> 350 ;
351 [label="X[6] <= 35.5000\ngini = 0.48\nsamples = 15", shape="box"] ;
315 -> 351 ;
352 [label="gini = 0.0000\nsamples = 6\nvalue = [ 6.  0.]", shape="box"] ;
351 -> 352 ;
353 [label="X[1] <= 15.5278\ngini = 0.444444444444\nsamples = 9", shape="box"] ;
351 -> 353 ;
354 [label="X[2] <= 94.0000\ngini = 0.375\nsamples = 4", shape="box"] ;
353 -> 354 ;
355 [label="gini = 0.0000\nsamples = 1\nvalue = [ 0.  1.]", shape="box"] ;
354 -> 355 ;
356 [label="gini = 0.0000\nsamples = 3\nvalue = [ 3.  0.]", shape="box"] ;
354 -> 356 ;
357 [label="gini = 0.0000\nsamples = 5\nvalue = [ 0.  5.]", shape="box"] ;
353 -> 357 ;
358 [label="X[12] <= 17.0000\ngini = 0.14201183432\nsamples = 13", shape="box"] ;
310 -> 358 ;
359 [label="X[8] <= 6.0000\ngini = 0.5\nsamples = 2", shape="box"] ;
358 -> 359 ;
360 [label="gini = 0.0000\nsamples = 1\nvalue = [ 0.  1.]", shape="box"] ;
359 -> 360 ;
361 [label="gini = 0.0000\nsamples = 1\nvalue = [ 1.  0.]", shape="box"] ;
359 -> 361 ;
362 [label="gini = 0.0000\nsamples = 11\nvalue = [ 11.   0.]", shape="box"] ;
358 -> 362 ;
363 [label="X[14] <= 0.0000\ngini = 0.391726301343\nsamples = 101", shape="box"] ;
309 -> 363 ;
364 [label="X[4] <= 3.6693\ngini = 0.462809917355\nsamples = 55", shape="box"] ;
363 -> 364 ;
365 [label="X[4] <= 3.5449\ngini = 0.32\nsamples = 5", shape="box"] ;
364 -> 365 ;
366 [label="gini = 0.0000\nsamples = 1\nvalue = [ 0.  1.]", shape="box"] ;
365 -> 366 ;
367 [label="gini = 0.0000\nsamples = 4\nvalue = [ 4.  0.]", shape="box"] ;
365 -> 367 ;
368 [label="X[8] <= 19.5000\ngini = 0.4352\nsamples = 50", shape="box"] ;
364 -> 368 ;
369 [label="X[7] <= 6.5000\ngini = 0.498614958449\nsamples = 19", shape="box"] ;
368 -> 369 ;
370 [label="gini = 0.0000\nsamples = 5\nvalue = [ 0.  5.]", shape="box"] ;
369 -> 370 ;
371 [label="X[8] <= 16.5000\ngini = 0.459183673469\nsamples = 14", shape="box"] ;
369 -> 371 ;
372 [label="X[1] <= 14.7803\ngini = 0.493827160494\nsamples = 9", shape="box"] ;
371 -> 372 ;
373 [label="gini = 0.0000\nsamples = 3\nvalue = [ 0.  3.]", shape="box"] ;
372 -> 373 ;
374 [label="X[8] <= 15.5000\ngini = 0.444444444444\nsamples = 6", shape="box"] ;
372 -> 374 ;
375 [label="gini = 0.0000\nsamples = 3\nvalue = [ 3.  0.]", shape="box"] ;
374 -> 375 ;
376 [label="X[4] <= 3.9501\ngini = 0.444444444444\nsamples = 3", shape="box"] ;
374 -> 376 ;
377 [label="gini = 0.0000\nsamples = 2\nvalue = [ 0.  2.]", shape="box"] ;
376 -> 377 ;
378 [label="gini = 0.0000\nsamples = 1\nvalue = [ 1.  0.]", shape="box"] ;
376 -> 378 ;
379 [label="gini = 0.0000\nsamples = 5\nvalue = [ 5.  0.]", shape="box"] ;
371 -> 379 ;
380 [label="X[6] <= 56.5000\ngini = 0.349635796046\nsamples = 31", shape="box"] ;
368 -> 380 ;
381 [label="gini = 0.0000\nsamples = 13\nvalue = [  0.  13.]", shape="box"] ;
380 -> 381 ;
382 [label="X[2] <= 144.0000\ngini = 0.475308641975\nsamples = 18", shape="box"] ;
380 -> 382 ;
383 [label="gini = 0.0000\nsamples = 3\nvalue = [ 3.  0.]", shape="box"] ;
382 -> 383 ;
384 [label="X[7] <= 31.5000\ngini = 0.391111111111\nsamples = 15", shape="box"] ;
382 -> 384 ;
385 [label="X[4] <= 3.7358\ngini = 0.277777777778\nsamples = 12", shape="box"] ;
384 -> 385 ;
386 [label="gini = 0.0000\nsamples = 1\nvalue = [ 1.  0.]", shape="box"] ;
385 -> 386 ;
387 [label="X[9] <= 27.5000\ngini = 0.165289256198\nsamples = 11", shape="box"] ;
385 -> 387 ;
388 [label="gini = 0.0000\nsamples = 1\nvalue = [ 1.  0.]", shape="box"] ;
387 -> 388 ;
389 [label="gini = 0.0000\nsamples = 10\nvalue = [  0.  10.]", shape="box"] ;
387 -> 389 ;
390 [label="X[1] <= 20.6652\ngini = 0.444444444444\nsamples = 3", shape="box"] ;
384 -> 390 ;
391 [label="gini = 0.0000\nsamples = 2\nvalue = [ 2.  0.]", shape="box"] ;
390 -> 391 ;
392 [label="gini = 0.0000\nsamples = 1\nvalue = [ 0.  1.]", shape="box"] ;
390 -> 392 ;
393 [label="X[4] <= 3.9666\ngini = 0.258034026465\nsamples = 46", shape="box"] ;
363 -> 393 ;
394 [label="X[9] <= 32.0000\ngini = 0.0713305898491\nsamples = 27", shape="box"] ;
393 -> 394 ;
395 [label="gini = 0.0000\nsamples = 26\nvalue = [  0.  26.]", shape="box"] ;
394 -> 395 ;
396 [label="gini = 0.0000\nsamples = 1\nvalue = [ 1.  0.]", shape="box"] ;
394 -> 396 ;
397 [label="X[1] <= 18.0556\ngini = 0.432132963989\nsamples = 19", shape="box"] ;
393 -> 397 ;
398 [label="X[4] <= 4.0613\ngini = 0.495867768595\nsamples = 11", shape="box"] ;
397 -> 398 ;
399 [label="gini = 0.0000\nsamples = 4\nvalue = [ 4.  0.]", shape="box"] ;
398 -> 399 ;
400 [label="X[11] <= 10.5000\ngini = 0.408163265306\nsamples = 7", shape="box"] ;
398 -> 400 ;
401 [label="X[5] <= 1.5000\ngini = 0.444444444444\nsamples = 3", shape="box"] ;
400 -> 401 ;
402 [label="gini = 0.0000\nsamples = 1\nvalue = [ 0.  1.]", shape="box"] ;
401 -> 402 ;
403 [label="gini = 0.0000\nsamples = 2\nvalue = [ 2.  0.]", shape="box"] ;
401 -> 403 ;
404 [label="gini = 0.0000\nsamples = 4\nvalue = [ 0.  4.]", shape="box"] ;
400 -> 404 ;
405 [label="gini = 0.0000\nsamples = 8\nvalue = [ 0.  8.]", shape="box"] ;
397 -> 405 ;
406 [label="X[1] <= 12.1484\ngini = 0.435351092924\nsamples = 381", shape="box"] ;
0 -> 406 ;
407 [label="X[5] <= 6.5000\ngini = 0.213659605551\nsamples = 148", shape="box"] ;
406 -> 407 ;
408 [label="X[1] <= 10.8750\ngini = 0.33165675964\nsamples = 81", shape="box"] ;
407 -> 408 ;
409 [label="X[12] <= 35.5000\ngini = 0.191326530612\nsamples = 56", shape="box"] ;
408 -> 409 ;
410 [label="X[4] <= 4.4200\ngini = 0.108727810651\nsamples = 52", shape="box"] ;
409 -> 410 ;
411 [label="X[4] <= 4.1041\ngini = 0.0753556324491\nsamples = 51", shape="box"] ;
410 -> 411 ;
412 [label="X[5] <= 5.5000\ngini = 0.0434567901235\nsamples = 45", shape="box"] ;
411 -> 412 ;
413 [label="gini = 0.0000\nsamples = 38\nvalue = [ 38.   0.]", shape="box"] ;
412 -> 413 ;
414 [label="X[0] <= 104.5000\ngini = 0.244897959184\nsamples = 7", shape="box"] ;
412 -> 414 ;
415 [label="X[2] <= 65.5000\ngini = 0.5\nsamples = 2", shape="box"] ;
414 -> 415 ;
416 [label="gini = 0.0000\nsamples = 1\nvalue = [ 1.  0.]", shape="box"] ;
415 -> 416 ;
417 [label="gini = 0.0000\nsamples = 1\nvalue = [ 0.  1.]", shape="box"] ;
415 -> 417 ;
418 [label="gini = 0.0000\nsamples = 5\nvalue = [ 5.  0.]", shape="box"] ;
414 -> 418 ;
419 [label="X[11] <= 11.0000\ngini = 0.277777777778\nsamples = 6", shape="box"] ;
411 -> 419 ;
420 [label="gini = 0.0000\nsamples = 5\nvalue = [ 5.  0.]", shape="box"] ;
419 -> 420 ;
421 [label="gini = 0.0000\nsamples = 1\nvalue = [ 0.  1.]", shape="box"] ;
419 -> 421 ;
422 [label="gini = 0.0000\nsamples = 1\nvalue = [ 0.  1.]", shape="box"] ;
410 -> 422 ;
423 [label="X[8] <= 16.5000\ngini = 0.375\nsamples = 4", shape="box"] ;
409 -> 423 ;
424 [label="gini = 0.0000\nsamples = 1\nvalue = [ 1.  0.]", shape="box"] ;
423 -> 424 ;
425 [label="gini = 0.0000\nsamples = 3\nvalue = [ 0.  3.]", shape="box"] ;
423 -> 425 ;
426 [label="X[14] <= 0.0000\ngini = 0.4928\nsamples = 25", shape="box"] ;
408 -> 426 ;
427 [label="X[4] <= 3.4304\ngini = 0.197530864198\nsamples = 9", shape="box"] ;
426 -> 427 ;
428 [label="gini = 0.0000\nsamples = 1\nvalue = [ 0.  1.]", shape="box"] ;
427 -> 428 ;
429 [label="gini = 0.0000\nsamples = 8\nvalue = [ 8.  0.]", shape="box"] ;
427 -> 429 ;
430 [label="X[1] <= 11.8254\ngini = 0.46875\nsamples = 16", shape="box"] ;
426 -> 430 ;
431 [label="X[5] <= 3.5000\ngini = 0.355029585799\nsamples = 13", shape="box"] ;
430 -> 431 ;
432 [label="gini = 0.0000\nsamples = 2\nvalue = [ 2.  0.]", shape="box"] ;
431 -> 432 ;
433 [label="X[8] <= 6.0000\ngini = 0.165289256198\nsamples = 11", shape="box"] ;
431 -> 433 ;
434 [label="X[1] <= 11.5982\ngini = 0.444444444444\nsamples = 3", shape="box"] ;
433 -> 434 ;
435 [label="gini = 0.0000\nsamples = 2\nvalue = [ 0.  2.]", shape="box"] ;
434 -> 435 ;
436 [label="gini = 0.0000\nsamples = 1\nvalue = [ 1.  0.]", shape="box"] ;
434 -> 436 ;
437 [label="gini = 0.0000\nsamples = 8\nvalue = [ 0.  8.]", shape="box"] ;
433 -> 437 ;
438 [label="gini = 0.0000\nsamples = 3\nvalue = [ 3.  0.]", shape="box"] ;
430 -> 438 ;
439 [label="X[1] <= 11.9500\ngini = 0.0294052127423\nsamples = 67", shape="box"] ;
407 -> 439 ;
440 [label="gini = 0.0000\nsamples = 62\nvalue = [ 62.   0.]", shape="box"] ;
439 -> 440 ;
441 [label="X[14] <= 0.0000\ngini = 0.32\nsamples = 5", shape="box"] ;
439 -> 441 ;
442 [label="gini = 0.0000\nsamples = 1\nvalue = [ 0.  1.]", shape="box"] ;
441 -> 442 ;
443 [label="gini = 0.0000\nsamples = 4\nvalue = [ 4.  0.]", shape="box"] ;
441 -> 443 ;
444 [label="X[5] <= 6.5000\ngini = 0.494243769456\nsamples = 233", shape="box"] ;
406 -> 444 ;
445 [label="X[2] <= 213.5000\ngini = 0.495435920321\nsamples = 157", shape="box"] ;
444 -> 445 ;
446 [label="X[1] <= 22.8333\ngini = 0.489244444444\nsamples = 150", shape="box"] ;
445 -> 446 ;
447 [label="X[8] <= 22.5000\ngini = 0.477596036017\nsamples = 137", shape="box"] ;
446 -> 447 ;
448 [label="X[11] <= 9.5000\ngini = 0.494715695694\nsamples = 107", shape="box"] ;
447 -> 448 ;
449 [label="X[4] <= 3.7411\ngini = 0.441078191134\nsamples = 67", shape="box"] ;
448 -> 449 ;
450 [label="X[7] <= 4.5000\ngini = 0.42\nsamples = 10", shape="box"] ;
449 -> 450 ;
451 [label="gini = 0.0000\nsamples = 3\nvalue = [ 0.  3.]", shape="box"] ;
450 -> 451 ;
452 [label="gini = 0.0000\nsamples = 7\nvalue = [ 7.  0.]", shape="box"] ;
450 -> 452 ;
453 [label="X[2] <= 61.0000\ngini = 0.387811634349\nsamples = 57", shape="box"] ;
449 -> 453 ;
454 [label="gini = 0.0000\nsamples = 4\nvalue = [ 4.  0.]", shape="box"] ;
453 -> 454 ;
455 [label="X[4] <= 4.0089\ngini = 0.328942684229\nsamples = 53", shape="box"] ;
453 -> 455 ;
456 [label="X[8] <= 3.0000\ngini = 0.132653061224\nsamples = 28", shape="box"] ;
455 -> 456 ;
457 [label="gini = 0.0000\nsamples = 1\nvalue = [ 1.  0.]", shape="box"] ;
456 -> 457 ;
458 [label="X[13] <= 15.5000\ngini = 0.0713305898491\nsamples = 27", shape="box"] ;
456 -> 458 ;
459 [label="X[13] <= 14.5000\ngini = 0.444444444444\nsamples = 3", shape="box"] ;
458 -> 459 ;
460 [label="gini = 0.0000\nsamples = 2\nvalue = [ 0.  2.]", shape="box"] ;
459 -> 460 ;
461 [label="gini = 0.0000\nsamples = 1\nvalue = [ 1.  0.]", shape="box"] ;
459 -> 461 ;
462 [label="gini = 0.0000\nsamples = 24\nvalue = [  0.  24.]", shape="box"] ;
458 -> 462 ;
463 [label="X[13] <= 21.5000\ngini = 0.4608\nsamples = 25", shape="box"] ;
455 -> 463 ;
464 [label="X[12] <= 11.5000\ngini = 0.165289256198\nsamples = 11", shape="box"] ;
463 -> 464 ;
465 [label="gini = 0.0000\nsamples = 1\nvalue = [ 1.  0.]", shape="box"] ;
464 -> 465 ;
466 [label="gini = 0.0000\nsamples = 10\nvalue = [  0.  10.]", shape="box"] ;
464 -> 466 ;
467 [label="X[6] <= 54.5000\ngini = 0.489795918367\nsamples = 14", shape="box"] ;
463 -> 467 ;
468 [label="X[1] <= 14.7639\ngini = 0.396694214876\nsamples = 11", shape="box"] ;
467 -> 468 ;
469 [label="gini = 0.0000\nsamples = 2\nvalue = [ 0.  2.]", shape="box"] ;
468 -> 469 ;
470 [label="X[11] <= 8.5000\ngini = 0.197530864198\nsamples = 9", shape="box"] ;
468 -> 470 ;
471 [label="gini = 0.0000\nsamples = 8\nvalue = [ 8.  0.]", shape="box"] ;
470 -> 471 ;
472 [label="gini = 0.0000\nsamples = 1\nvalue = [ 0.  1.]", shape="box"] ;
470 -> 472 ;
473 [label="gini = 0.0000\nsamples = 3\nvalue = [ 0.  3.]", shape="box"] ;
467 -> 473 ;
474 [label="X[1] <= 19.0000\ngini = 0.455\nsamples = 40", shape="box"] ;
448 -> 474 ;
475 [label="X[1] <= 12.6515\ngini = 0.367309458219\nsamples = 33", shape="box"] ;
474 -> 475 ;
476 [label="X[5] <= 5.5000\ngini = 0.32\nsamples = 5", shape="box"] ;
475 -> 476 ;
477 [label="gini = 0.0000\nsamples = 4\nvalue = [ 0.  4.]", shape="box"] ;
476 -> 477 ;
478 [label="gini = 0.0000\nsamples = 1\nvalue = [ 1.  0.]", shape="box"] ;
476 -> 478 ;
479 [label="X[7] <= 5.5000\ngini = 0.244897959184\nsamples = 28", shape="box"] ;
475 -> 479 ;
480 [label="gini = 0.0000\nsamples = 1\nvalue = [ 0.  1.]", shape="box"] ;
479 -> 480 ;
481 [label="X[9] <= 19.5000\ngini = 0.197530864198\nsamples = 27", shape="box"] ;
479 -> 481 ;
482 [label="X[13] <= 31.5000\ngini = 0.396694214876\nsamples = 11", shape="box"] ;
481 -> 482 ;
483 [label="gini = 0.0000\nsamples = 8\nvalue = [ 8.  0.]", shape="box"] ;
482 -> 483 ;
484 [label="gini = 0.0000\nsamples = 3\nvalue = [ 0.  3.]", shape="box"] ;
482 -> 484 ;
485 [label="gini = 0.0000\nsamples = 16\nvalue = [ 16.   0.]", shape="box"] ;
481 -> 485 ;
486 [label="X[5] <= 5.5000\ngini = 0.244897959184\nsamples = 7", shape="box"] ;
474 -> 486 ;
487 [label="gini = 0.0000\nsamples = 6\nvalue = [ 0.  6.]", shape="box"] ;
486 -> 487 ;
488 [label="gini = 0.0000\nsamples = 1\nvalue = [ 1.  0.]", shape="box"] ;
486 -> 488 ;
489 [label="X[7] <= 10.0000\ngini = 0.32\nsamples = 30", shape="box"] ;
447 -> 489 ;
490 [label="X[1] <= 13.6554\ngini = 0.444444444444\nsamples = 3", shape="box"] ;
489 -> 490 ;
491 [label="gini = 0.0000\nsamples = 1\nvalue = [ 0.  1.]", shape="box"] ;
490 -> 491 ;
492 [label="gini = 0.0000\nsamples = 2\nvalue = [ 2.  0.]", shape="box"] ;
490 -> 492 ;
493 [label="X[9] <= 48.0000\ngini = 0.252400548697\nsamples = 27", shape="box"] ;
489 -> 493 ;
494 [label="X[10] <= 50.0000\ngini = 0.204142011834\nsamples = 26", shape="box"] ;
493 -> 494 ;
495 [label="X[2] <= 151.0000\ngini = 0.375\nsamples = 12", shape="box"] ;
494 -> 495 ;
496 [label="X[1] <= 14.1394\ngini = 0.18\nsamples = 10", shape="box"] ;
495 -> 496 ;
497 [label="gini = 0.0000\nsamples = 1\nvalue = [ 1.  0.]", shape="box"] ;
496 -> 497 ;
498 [label="gini = 0.0000\nsamples = 9\nvalue = [ 0.  9.]", shape="box"] ;
496 -> 498 ;
499 [label="gini = 0.0000\nsamples = 2\nvalue = [ 2.  0.]", shape="box"] ;
495 -> 499 ;
500 [label="gini = 0.0000\nsamples = 14\nvalue = [  0.  14.]", shape="box"] ;
494 -> 500 ;
501 [label="gini = 0.0000\nsamples = 1\nvalue = [ 1.  0.]", shape="box"] ;
493 -> 501 ;
502 [label="X[7] <= 12.5000\ngini = 0.355029585799\nsamples = 13", shape="box"] ;
446 -> 502 ;
503 [label="X[8] <= 7.5000\ngini = 0.5\nsamples = 6", shape="box"] ;
502 -> 503 ;
504 [label="gini = 0.0000\nsamples = 2\nvalue = [ 2.  0.]", shape="box"] ;
503 -> 504 ;
505 [label="X[1] <= 24.2768\ngini = 0.375\nsamples = 4", shape="box"] ;
503 -> 505 ;
506 [label="gini = 0.0000\nsamples = 1\nvalue = [ 1.  0.]", shape="box"] ;
505 -> 506 ;
507 [label="gini = 0.0000\nsamples = 3\nvalue = [ 0.  3.]", shape="box"] ;
505 -> 507 ;
508 [label="gini = 0.0000\nsamples = 7\nvalue = [ 7.  0.]", shape="box"] ;
502 -> 508 ;
509 [label="gini = 0.0000\nsamples = 7\nvalue = [ 7.  0.]", shape="box"] ;
445 -> 509 ;
510 [label="X[4] <= 3.4191\ngini = 0.361495844875\nsamples = 76", shape="box"] ;
444 -> 510 ;
511 [label="gini = 0.0000\nsamples = 2\nvalue = [ 0.  2.]", shape="box"] ;
510 -> 511 ;
512 [label="X[14] <= 0.0000\ngini = 0.338933528123\nsamples = 74", shape="box"] ;
510 -> 512 ;
513 [label="X[4] <= 4.1283\ngini = 0.399524375743\nsamples = 58", shape="box"] ;
512 -> 513 ;
514 [label="X[8] <= 22.5000\ngini = 0.360991735537\nsamples = 55", shape="box"] ;
513 -> 514 ;
515 [label="X[4] <= 3.5138\ngini = 0.158790170132\nsamples = 23", shape="box"] ;
514 -> 515 ;
516 [label="gini = 0.0000\nsamples = 1\nvalue = [ 0.  1.]", shape="box"] ;
515 -> 516 ;
517 [label="X[1] <= 18.7768\ngini = 0.0867768595041\nsamples = 22", shape="box"] ;
515 -> 517 ;
518 [label="gini = 0.0000\nsamples = 16\nvalue = [ 16.   0.]", shape="box"] ;
517 -> 518 ;
519 [label="X[1] <= 19.3482\ngini = 0.277777777778\nsamples = 6", shape="box"] ;
517 -> 519 ;
520 [label="gini = 0.0000\nsamples = 1\nvalue = [ 0.  1.]", shape="box"] ;
519 -> 520 ;
521 [label="gini = 0.0000\nsamples = 5\nvalue = [ 5.  0.]", shape="box"] ;
519 -> 521 ;
522 [label="X[5] <= 8.5000\ngini = 0.451171875\nsamples = 32", shape="box"] ;
514 -> 522 ;
523 [label="X[13] <= 48.0000\ngini = 0.462809917355\nsamples = 11", shape="box"] ;
522 -> 523 ;
524 [label="X[12] <= 28.5000\ngini = 0.444444444444\nsamples = 6", shape="box"] ;
523 -> 524 ;
525 [label="gini = 0.0000\nsamples = 2\nvalue = [ 0.  2.]", shape="box"] ;
524 -> 525 ;
526 [label="gini = 0.0000\nsamples = 4\nvalue = [ 4.  0.]", shape="box"] ;
524 -> 526 ;
527 [label="gini = 0.0000\nsamples = 5\nvalue = [ 0.  5.]", shape="box"] ;
523 -> 527 ;
528 [label="X[10] <= 36.0000\ngini = 0.308390022676\nsamples = 21", shape="box"] ;
522 -> 528 ;
529 [label="gini = 0.0000\nsamples = 2\nvalue = [ 0.  2.]", shape="box"] ;
528 -> 529 ;
530 [label="X[8] <= 71.0000\ngini = 0.18836565097\nsamples = 19", shape="box"] ;
528 -> 530 ;
531 [label="X[8] <= 46.0000\ngini = 0.104938271605\nsamples = 18", shape="box"] ;
530 -> 531 ;
532 [label="gini = 0.0000\nsamples = 15\nvalue = [ 15.   0.]", shape="box"] ;
531 -> 532 ;
533 [label="X[8] <= 48.0000\ngini = 0.444444444444\nsamples = 3", shape="box"] ;
531 -> 533 ;
534 [label="gini = 0.0000\nsamples = 1\nvalue = [ 0.  1.]", shape="box"] ;
533 -> 534 ;
535 [label="gini = 0.0000\nsamples = 2\nvalue = [ 2.  0.]", shape="box"] ;
533 -> 535 ;
536 [label="gini = 0.0000\nsamples = 1\nvalue = [ 0.  1.]", shape="box"] ;
530 -> 536 ;
537 [label="gini = 0.0000\nsamples = 3\nvalue = [ 0.  3.]", shape="box"] ;
513 -> 537 ;
538 [label="gini = 0.0000\nsamples = 16\nvalue = [ 16.   0.]", shape="box"] ;
512 -> 538 ;
}